{"learner":{"attributes":{"best_iteration":"49","best_ntree_limit":"50","scikit_learn":"{\"n_estimators\": 50, \"objective\": \"reg:squarederror\", \"max_depth\": 3, \"max_leaves\": null, \"max_bin\": null, \"grow_policy\": null, \"learning_rate\": 0.1, \"verbosity\": 0, \"booster\": null, \"tree_method\": null, \"gamma\": null, \"min_child_weight\": 1, \"max_delta_step\": null, \"subsample\": 1.0, \"sampling_method\": null, \"colsample_bytree\": 1.0, \"colsample_bylevel\": null, \"colsample_bynode\": null, \"reg_alpha\": null, \"reg_lambda\": null, \"scale_pos_weight\": null, \"base_score\": null, \"missing\": NaN, \"num_parallel_tree\": null, \"random_state\": null, \"n_jobs\": null, \"monotone_constraints\": null, \"interaction_constraints\": null, \"importance_type\": null, \"gpu_id\": null, \"validate_parameters\": null, \"predictor\": null, \"enable_categorical\": false, \"feature_types\": null, \"max_cat_to_onehot\": null, \"max_cat_threshold\": null, \"eval_metric\": null, \"early_stopping_rounds\": null, \"callbacks\": null, \"_estimator_type\": \"regressor\"}"},"feature_names":["Y-3 Gper1kChunk","Y-2 Gper1kChunk","Y-1 Gper1kChunk","Y-3 xGper1kChunk","Y-2 xGper1kChunk","Y-1 xGper1kChunk","Y-3 SHper1kChunk","Y-2 SHper1kChunk","Y-1 SHper1kChunk","Y-3 iCFper1kChunk","Y-2 iCFper1kChunk","Y-1 iCFper1kChunk","Y-3 RAper1kChunk","Y-2 RAper1kChunk","Y-1 RAper1kChunk","Y-0 Age","Position"],"feature_types":["float","float","float","float","float","float","float","float","float","float","float","float","float","float","float","float","int"],"gradient_booster":{"model":{"gbtree_model_param":{"num_parallel_tree":"1","num_trees":"50","size_leaf_vector":"0"},"tree_info":[0,0,0,0,0,0,0,0,0,0,0,0,0,0,0,0,0,0,0,0,0,0,0,0,0,0,0,0,0,0,0,0,0,0,0,0,0,0,0,0,0,0,0,0,0,0,0,0,0,0],"trees":[{"base_weights":[4.5894394E0,1.8324599E0,6.739959E0,1.147082E0,3.5881205E0,5.889453E0,8.9822855E0,6.799671E-1,1.7582488E0,2.9178557E0,4.1144805E0,5.0036426E0,6.7711616E0,7.90841E0,1.0150531E1],"categories":[],"categories_nodes":[],"categories_segments":[],"categories_sizes":[],"default_left":[1,1,1,1,1,1,1,0,0,0,0,0,0,0,0],"id":0,"left_children":[1,3,5,7,9,11,13,-1,-1,-1,-1,-1,-1,-1,-1],"loss_changes":[2.9193586E4,2.5949927E3,5.224078E3,4.4273376E2,2.0179102E2,1.5352031E3,8.719297E2,0E0,0E0,0E0,0E0,0E0,0E0,0E0,0E0],"parents":[2147483647,0,0,1,1,2,2,3,3,4,4,5,5,6,6],"right_children":[2,4,6,8,10,12,14,-1,-1,-1,-1,-1,-1,-1,-1],"split_conditions":[4.6311874E0,2.9688802E0,8.999807E0,1.8137035E0,3.8854353E0,6.645769E0,9.528574E0,6.799671E-2,1.7582488E-1,2.9178557E-1,4.1144806E-1,5.0036424E-1,6.7711616E-1,7.9084104E-1,1.0150532E0],"split_indices":[5,5,2,5,1,1,1,0,0,0,0,0,0,0,0],"split_type":[0,0,0,0,0,0,0,0,0,0,0,0,0,0,0],"sum_hessian":[4.925E3,2.159E3,2.766E3,1.554E3,6.05E2,2.008E3,7.58E2,8.82E2,6.72E2,2.69E2,3.36E2,1.005E3,1.003E3,3.99E2,3.59E2],"tree_param":{"num_deleted":"0","num_feature":"17","num_nodes":"15","size_leaf_vector":"0"}},{"base_weights":[4.1312933E0,1.870592E0,6.2715187E0,1.0403E0,3.431129E0,5.595825E0,8.435673E0,6.120474E-1,1.5916257E0,3.0935924E0,4.403672E0,4.7435594E0,6.2931175E0,7.319826E0,9.428705E0],"categories":[],"categories_nodes":[],"categories_segments":[],"categories_sizes":[],"default_left":[1,1,1,1,1,1,1,0,0,0,0,0,0,0,0],"id":1,"left_children":[1,3,5,7,9,11,13,-1,-1,-1,-1,-1,-1,-1,-1],"loss_changes":[2.3822273E4,3.1022266E3,3.6524219E3,3.6876904E2,2.594961E2,1.1177031E3,5.958281E2,0E0,0E0,0E0,0E0,0E0,0E0,0E0,0E0],"parents":[2147483647,0,0,1,1,2,2,3,3,4,4,5,5,6,6],"right_children":[2,4,6,8,10,12,14,-1,-1,-1,-1,-1,-1,-1,-1],"split_conditions":[5.063593E0,3.0082629E0,9.551708E0,1.8137035E0,6.003481E0,6.4877715E0,9.003963E0,6.120474E-2,1.5916257E-1,3.0935925E-1,4.4036722E-1,4.7435594E-1,6.2931174E-1,7.3198265E-1,9.4287056E-1],"split_indices":[5,5,2,5,1,2,0,0,0,0,0,0,0,0,0],"split_type":[0,0,0,0,0,0,0,0,0,0,0,0,0,0,0],"sum_hessian":[4.925E3,2.396E3,2.529E3,1.565E3,8.31E2,1.93E3,5.99E2,8.82E2,6.83E2,6.2E2,2.11E2,8.72E2,1.058E3,2.86E2,3.13E2],"tree_param":{"num_deleted":"0","num_feature":"17","num_nodes":"15","size_leaf_vector":"0"}},{"base_weights":[3.718925E0,1.6839375E0,5.645465E0,9.018476E-1,3.0384128E0,4.9085803E0,7.262264E0,5.1529676E-1,1.3666425E0,2.19833E0,3.3927274E0,4.1947775E0,5.5863905E0,6.298666E0,8.269798E0],"categories":[],"categories_nodes":[],"categories_segments":[],"categories_sizes":[],"default_left":[1,1,1,1,1,1,1,0,0,0,0,0,0,0,0],"id":2,"left_children":[1,3,5,7,9,11,13,-1,-1,-1,-1,-1,-1,-1,-1],"loss_changes":[1.9302805E4,2.5364536E3,2.9785781E3,2.7256897E2,2.5358398E2,8.1890234E2,7.148867E2,0E0,0E0,0E0,0E0,0E0,0E0,0E0,0E0],"parents":[2147483647,0,0,1,1,2,2,3,3,4,4,5,5,6,6],"right_children":[2,4,6,8,10,12,14,-1,-1,-1,-1,-1,-1,-1,-1],"split_conditions":[5.063593E0,2.891477E0,8.891223E0,1.771038E0,3.6842818E0,6.759609E0,9.432774E0,5.1529676E-2,1.3666426E-1,2.19833E-1,3.3927274E-1,4.1947776E-1,5.5863905E-1,6.298666E-1,8.269798E-1],"split_indices":[5,4,2,4,5,1,1,0,0,0,0,0,0,0,0],"split_type":[0,0,0,0,0,0,0,0,0,0,0,0,0,0,0],"sum_hessian":[4.925E3,2.396E3,2.529E3,1.52E3,8.76E2,1.74E3,7.89E2,8.31E2,6.89E2,2.62E2,6.14E2,8.51E2,8.89E2,4.07E2,3.82E2],"tree_param":{"num_deleted":"0","num_feature":"17","num_nodes":"15","size_leaf_vector":"0"}},{"base_weights":[3.3476787E0,1.642056E0,5.224254E0,8.5044944E-1,2.8976216E0,4.7262883E0,7.144174E0,5.3805184E-1,1.3982468E0,2.514545E0,3.6867547E0,4.243366E0,5.6396394E0,6.4032235E0,8.216664E0],"categories":[],"categories_nodes":[],"categories_segments":[],"categories_sizes":[],"default_left":[1,1,1,1,1,1,1,0,0,0,0,0,0,0,0],"id":3,"left_children":[1,3,5,7,9,11,13,-1,-1,-1,-1,-1,-1,-1,-1],"loss_changes":[1.5758211E4,2.5638213E3,2.2081914E3,2.7048962E2,2.9242383E2,7.986758E2,3.296172E2,0E0,0E0,0E0,0E0,0E0,0E0,0E0,0E0],"parents":[2147483647,0,0,1,1,2,2,3,3,4,4,5,5,6,6],"right_children":[2,4,6,8,10,12,14,-1,-1,-1,-1,-1,-1,-1,-1],"split_conditions":[5.3824735E0,3.0673943E0,1.0032961E1,2.0050645E0,5.1892366E0,8.250717E0,1.0634878E1,5.3805184E-2,1.3982467E-1,2.514545E-1,3.6867547E-1,4.2433658E-1,5.6396395E-1,6.403224E-1,8.216664E-1],"split_indices":[5,5,2,4,2,1,1,0,0,0,0,0,0,0,0],"split_type":[0,0,0,0,0,0,0,0,0,0,0,0,0,0,0],"sum_hessian":[4.925E3,2.581E3,2.344E3,1.584E3,9.97E2,1.864E3,4.8E2,1.01E3,5.74E2,6.74E2,3.23E2,1.223E3,6.41E2,2.88E2,1.92E2],"tree_param":{"num_deleted":"0","num_feature":"17","num_nodes":"15","size_leaf_vector":"0"}},{"base_weights":[3.0135732E0,1.3679569E0,4.612528E0,7.23278E-1,2.4489691E0,3.6562326E0,5.541742E0,4.5858556E-1,1.198784E0,1.9849036E0,3.2027016E0,3.3177412E0,4.57344E0,4.8545747E0,6.5428796E0],"categories":[],"categories_nodes":[],"categories_segments":[],"categories_sizes":[],"default_left":[1,1,1,1,1,1,1,0,0,0,0,0,0,0,0],"id":4,"left_children":[1,3,5,7,9,11,13,-1,-1,-1,-1,-1,-1,-1,-1],"loss_changes":[1.2955305E4,1.6910127E3,2.1994727E3,1.9113934E2,3.1089404E2,3.679414E2,8.384922E2,0E0,0E0,0E0,0E0,0E0,0E0,0E0,0E0],"parents":[2147483647,0,0,1,1,2,2,3,3,4,4,5,5,6,6],"right_children":[2,4,6,8,10,12,14,-1,-1,-1,-1,-1,-1,-1,-1],"split_conditions":[5.188534E0,2.891477E0,7.318713E0,1.9404625E0,5.0554414E0,6.950174E0,9.166068E0,4.585856E-2,1.19878404E-1,1.9849037E-1,3.2027015E-1,3.3177412E-1,4.5734403E-1,4.8545748E-1,6.54288E-1],"split_indices":[4,4,2,5,2,5,0,0,0,0,0,0,0,0,0],"split_type":[0,0,0,0,0,0,0,0,0,0,0,0,0,0,0],"sum_hessian":[4.925E3,2.428E3,2.497E3,1.522E3,9.06E2,1.233E3,1.264E3,9.79E2,5.43E2,5.63E2,3.43E2,9.04E2,3.29E2,7.53E2,5.11E2],"tree_param":{"num_deleted":"0","num_feature":"17","num_nodes":"15","size_leaf_vector":"0"}},{"base_weights":[2.7127464E0,1.3675809E0,4.310681E0,7.5435543E-1,2.5048752E0,3.7814264E0,5.657525E0,4.7211108E-1,1.2830749E0,2.122753E0,3.1757882E0,3.4299273E0,4.678596E0,5.1945457E0,6.9937425E0],"categories":[],"categories_nodes":[],"categories_segments":[],"categories_sizes":[],"default_left":[1,1,1,1,1,1,1,0,0,0,0,0,0,0,0],"id":5,"left_children":[1,3,5,7,9,11,13,-1,-1,-1,-1,-1,-1,-1,-1],"loss_changes":[1.0582473E4,1.8644009E3,1.5831758E3,2.590512E2,2.3347803E2,4.9451367E2,3.5527148E2,0E0,0E0,0E0,0E0,0E0,0E0,0E0,0E0],"parents":[2147483647,0,0,1,1,2,2,3,3,4,4,5,5,6,6],"right_children":[2,4,6,8,10,12,14,-1,-1,-1,-1,-1,-1,-1,-1],"split_conditions":[5.4187326E0,3.6304514E0,8.2735195E0,2.1784449E0,6.025029E0,8.525366E0,1.2021418E1,4.7211107E-2,1.2830749E-1,2.122753E-1,3.1757882E-1,3.4299275E-1,4.678596E-1,5.194546E-1,6.9937426E-1],"split_indices":[2,5,5,4,1,0,2,0,0,0,0,0,0,0,0],"split_type":[0,0,0,0,0,0,0,0,0,0,0,0,0,0,0],"sum_hessian":[4.925E3,2.675E3,2.25E3,1.739E3,9.36E2,1.618E3,6.32E2,1.135E3,6.04E2,5.99E2,3.37E2,1.166E3,4.52E2,4.73E2,1.59E2],"tree_param":{"num_deleted":"0","num_feature":"17","num_nodes":"15","size_leaf_vector":"0"}},{"base_weights":[2.442027E0,1.0959244E0,3.74997E0,5.1282936E-1,1.8715864E0,3.212551E0,4.895038E0,1.8735002E-1,7.476205E-1,1.6549408E0,2.8662372E0,2.7007585E0,3.7801154E0,4.5128136E0,6.307651E0],"categories":[],"categories_nodes":[],"categories_segments":[],"categories_sizes":[],"default_left":[1,1,1,1,1,1,1,0,0,0,0,0,0,0,0],"id":6,"left_children":[1,3,5,7,9,11,13,-1,-1,-1,-1,-1,-1,-1,-1],"loss_changes":[8.668732E3,1.0976394E3,1.5215E3,1.0593042E2,2.197937E2,4.844707E2,4.0132227E2,0E0,0E0,0E0,0E0,0E0,0E0,0E0,0E0],"parents":[2147483647,0,0,1,1,2,2,3,3,4,4,5,5,6,6],"right_children":[2,4,6,8,10,12,14,-1,-1,-1,-1,-1,-1,-1,-1],"split_conditions":[5.188534E0,2.5389762E0,7.8652616E0,1.4350872E0,6.2552557E0,6.6372747E0,1.2021418E1,1.8735003E-2,7.4762054E-2,1.6549408E-1,2.8662372E-1,2.7007586E-1,3.7801155E-1,4.5128137E-1,6.3076514E-1],"split_indices":[4,5,5,5,2,2,2,0,0,0,0,0,0,0,0],"split_type":[0,0,0,0,0,0,0,0,0,0,0,0,0,0,0],"sum_hessian":[4.925E3,2.428E3,2.497E3,1.387E3,1.041E3,1.702E3,7.95E2,5.82E2,8.05E2,8.57E2,1.84E2,8.98E2,8.04E2,6.29E2,1.66E2],"tree_param":{"num_deleted":"0","num_feature":"17","num_nodes":"15","size_leaf_vector":"0"}},{"base_weights":[2.1982863E0,1.056955E0,3.4540303E0,5.180646E-1,1.8289948E0,2.9686375E0,4.502796E0,1.7646386E-1,7.494957E-1,1.5519353E0,2.489141E0,2.388734E0,3.3251615E0,3.998002E0,5.5187817E0],"categories":[],"categories_nodes":[],"categories_segments":[],"categories_sizes":[],"default_left":[1,1,1,1,1,1,1,0,0,0,0,0,0,0,0],"id":7,"left_children":[1,3,5,7,9,11,13,-1,-1,-1,-1,-1,-1,-1,-1],"loss_changes":[7.0563906E3,1.0732803E3,1.1803848E3,1.20192535E2,1.9019336E2,3.2409668E2,3.5745508E2,0E0,0E0,0E0,0E0,0E0,0E0,0E0,0E0],"parents":[2147483647,0,0,1,1,2,2,3,3,4,4,5,5,6,6],"right_children":[2,4,6,8,10,12,14,-1,-1,-1,-1,-1,-1,-1,-1],"split_conditions":[5.3824735E0,2.891477E0,9.070894E0,1.4914653E0,5.8723764E0,6.244222E0,1.0676031E1,1.7646385E-2,7.494957E-2,1.5519354E-1,2.4891411E-1,2.388734E-1,3.3251616E-1,3.998002E-1,5.5187815E-1],"split_indices":[5,4,1,4,1,0,2,0,0,0,0,0,0,0,0],"split_type":[0,0,0,0,0,0,0,0,0,0,0,0,0,0,0],"sum_hessian":[4.925E3,2.581E3,2.344E3,1.521E3,1.06E3,1.605E3,7.39E2,6.15E2,9.06E2,7.49E2,3.11E2,6.14E2,9.91E2,4.97E2,2.42E2],"tree_param":{"num_deleted":"0","num_feature":"17","num_nodes":"15","size_leaf_vector":"0"}},{"base_weights":[1.9788678E0,9.7906554E-1,3.1665585E0,5.66351E-1,1.86807E0,2.8141067E0,4.379562E0,3.9731646E-1,1.1467507E0,2.1515026E0,1.3485148E0,2.254215E0,3.1628523E0,4.082197E0,5.9082856E0],"categories":[],"categories_nodes":[],"categories_segments":[],"categories_sizes":[],"default_left":[1,1,1,1,1,1,1,0,0,0,0,0,0,0,0],"id":8,"left_children":[1,3,5,7,9,11,13,-1,-1,-1,-1,-1,-1,-1,-1],"loss_changes":[5.8463066E3,9.807798E2,9.5003516E2,1.7898315E2,1.2197412E2,3.3398926E2,2.0544824E2,0E0,0E0,0E0,0E0,0E0,0E0,0E0,0E0],"parents":[2147483647,0,0,1,1,2,2,3,3,4,4,5,5,6,6],"right_children":[2,4,6,8,10,12,14,-1,-1,-1,-1,-1,-1,-1,-1],"split_conditions":[5.4187326E0,4.1801224E0,8.470975E0,2.8771806E0,3.15E1,6.263087E0,1.7120529E2,3.9731648E-2,1.1467507E-1,2.1515027E-1,1.3485149E-1,2.254215E-1,3.1628522E-1,4.0821972E-1,5.908286E-1],"split_indices":[2,4,4,2,15,0,11,0,0,0,0,0,0,0,0],"split_type":[0,0,0,0,0,0,0,0,0,0,0,0,0,0,0],"sum_hessian":[4.925E3,2.675E3,2.25E3,1.828E3,8.47E2,1.746E3,5.04E2,1.417E3,4.11E2,5.46E2,3.01E2,6.73E2,1.073E3,4.25E2,7.9E1],"tree_param":{"num_deleted":"0","num_feature":"17","num_nodes":"15","size_leaf_vector":"0"}},{"base_weights":[1.7813962E0,8.4180236E-1,2.8236427E0,3.5928032E-1,1.391764E0,2.5624964E0,4.2539005E0,2.5448699E-2,5.146638E-1,1.2107795E0,2.2340724E0,2.1277606E0,3.035965E0,3.3442683E0,4.7871866E0],"categories":[],"categories_nodes":[],"categories_segments":[],"categories_sizes":[],"default_left":[1,1,1,1,1,1,1,0,0,0,0,0,0,0,0],"id":9,"left_children":[1,3,5,7,9,11,13,-1,-1,-1,-1,-1,-1,-1,-1],"loss_changes":[4.8215977E3,6.8733545E2,8.612363E2,7.167392E1,1.8190552E2,4.0047363E2,1.5813916E2,0E0,0E0,0E0,0E0,0E0,0E0,0E0,0E0],"parents":[2147483647,0,0,1,1,2,2,3,3,4,4,5,5,6,6],"right_children":[2,4,6,8,10,12,14,-1,-1,-1,-1,-1,-1,-1,-1],"split_conditions":[5.318324E0,2.5332832E0,1.0690405E1,1.2840855E0,6.261892E0,6.777781E0,8.656712E0,2.54487E-3,5.1466383E-2,1.21077955E-1,2.2340725E-1,2.1277606E-1,3.035965E-1,3.3442685E-1,4.7871867E-1],"split_indices":[1,5,2,4,5,5,0,0,0,0,0,0,0,0,0],"split_type":[0,0,0,0,0,0,0,0,0,0,0,0,0,0,0],"sum_hessian":[4.925E3,2.591E3,2.334E3,1.381E3,1.21E3,1.976E3,3.58E2,4.39E2,9.42E2,9.98E2,2.12E2,1.033E3,9.43E2,1.35E2,2.23E2],"tree_param":{"num_deleted":"0","num_feature":"17","num_nodes":"15","size_leaf_vector":"0"}},{"base_weights":[1.6036073E0,7.7512676E-1,2.5694628E0,3.3437076E-1,1.3225291E0,2.129156E0,3.2775793E0,1.4189376E-1,5.713198E-1,9.43201E-1,1.6495131E0,2.674584E0,1.8468115E0,3.1005828E0,4.9184904E0],"categories":[],"categories_nodes":[],"categories_segments":[],"categories_sizes":[],"default_left":[1,1,1,1,1,1,1,0,0,0,0,0,0,0,0],"id":10,"left_children":[1,3,5,7,9,11,13,-1,-1,-1,-1,-1,-1,-1,-1],"loss_changes":[3.9397578E3,6.396494E2,7.020283E2,6.700719E1,1.4517651E2,2.114292E2,2.3742773E2,0E0,0E0,0E0,0E0,0E0,0E0,0E0,0E0],"parents":[2147483647,0,0,1,1,2,2,3,3,4,4,5,5,6,6],"right_children":[2,4,6,8,10,12,14,-1,-1,-1,-1,-1,-1,-1,-1],"split_conditions":[5.3678923E0,2.8600075E0,7.545348E0,7.4855194E1,4.64382E0,2.75E1,1.332785E1,1.41893765E-2,5.7131983E-2,9.43201E-2,1.6495131E-1,2.674584E-1,1.8468116E-1,3.100583E-1,4.9184904E-1],"split_indices":[2,1,4,11,3,15,2,0,0,0,0,0,0,0,0],"split_type":[0,0,0,0,0,0,0,0,0,0,0,0,0,0,0],"sum_hessian":[4.925E3,2.652E3,2.273E3,1.47E3,1.182E3,1.404E3,8.69E2,8.12E2,6.58E2,5.49E2,6.33E2,4.76E2,9.28E2,7.87E2,8.2E1],"tree_param":{"num_deleted":"0","num_feature":"17","num_nodes":"15","size_leaf_vector":"0"}},{"base_weights":[1.4435683E0,6.59418E-1,2.2903576E0,2.6949376E-1,1.1084732E0,1.9271365E0,3.0790567E0,-1.24501064E-1,3.6137247E-1,6.9742864E-1,1.3780905E0,1.5862325E0,2.2806249E0,2.5413244E0,3.6171873E0],"categories":[],"categories_nodes":[],"categories_segments":[],"categories_sizes":[],"default_left":[1,1,1,1,1,1,1,0,0,0,0,0,0,0,0],"id":11,"left_children":[1,3,5,7,9,11,13,-1,-1,-1,-1,-1,-1,-1,-1],"loss_changes":[3.2694043E3,4.4777576E2,6.724326E2,4.967486E1,1.3080945E2,1.9208301E2,2.0638818E2,0E0,0E0,0E0,0E0,0E0,0E0,0E0,0E0],"parents":[2147483647,0,0,1,1,2,2,3,3,4,4,5,5,6,6],"right_children":[2,4,6,8,10,12,14,-1,-1,-1,-1,-1,-1,-1,-1],"split_conditions":[5.4021344E0,2.528922E0,9.070894E0,1.0293269E0,3.6842818E0,6.787113E0,9.213387E0,-1.2450106E-2,3.613725E-2,6.9742866E-2,1.3780905E-1,1.5862326E-1,2.280625E-1,2.5413245E-1,3.6171874E-1],"split_indices":[4,1,1,5,5,2,0,0,0,0,0,0,0,0,0],"split_type":[0,0,0,0,0,0,0,0,0,0,0,0,0,0,0],"sum_hessian":[4.925E3,2.558E3,2.367E3,1.37E3,1.188E3,1.623E3,7.44E2,2.59E2,1.111E3,4.72E2,7.16E2,8.29E2,7.94E2,3.75E2,3.69E2],"tree_param":{"num_deleted":"0","num_feature":"17","num_nodes":"15","size_leaf_vector":"0"}},{"base_weights":[1.299462E0,5.9678906E-1,2.0789175E0,3.1455708E-1,1.1225469E0,1.7343416E0,2.7797194E0,1.1678171E-1,5.2277684E-1,1.0426872E0,2.8691063E0,1.3475845E0,2.0391133E0,2.184472E0,3.3190491E0],"categories":[],"categories_nodes":[],"categories_segments":[],"categories_sizes":[],"default_left":[1,1,1,1,1,1,1,0,0,0,0,0,0,0,0],"id":12,"left_children":[1,3,5,7,9,11,13,-1,-1,-1,-1,-1,-1,-1,-1],"loss_changes":[2.6967402E3,3.8426257E2,5.590332E2,6.945204E1,1.2323755E2,1.8207617E2,2.393042E2,0E0,0E0,0E0,0E0,0E0,0E0,0E0,0E0],"parents":[2147483647,0,0,1,1,2,2,3,3,4,4,5,5,6,6],"right_children":[2,4,6,8,10,12,14,-1,-1,-1,-1,-1,-1,-1,-1],"split_conditions":[5.318324E0,3.4860268E0,7.262111E1,1.8137035E0,9.764636E0,6.3545895E0,8.9995E0,1.1678171E-2,5.2277684E-2,1.0426872E-1,2.8691062E-1,1.3475846E-1,2.0391133E-1,2.1844721E-1,3.3190492E-1],"split_indices":[1,0,8,5,2,2,0,0,0,0,0,0,0,0,0],"split_type":[0,0,0,0,0,0,0,0,0,0,0,0,0,0,0],"sum_hessian":[4.925E3,2.591E3,2.334E3,1.687E3,9.04E2,1.567E3,7.67E2,8.66E2,8.21E2,8.66E2,3.8E1,6.93E2,8.74E2,3.67E2,4E2],"tree_param":{"num_deleted":"0","num_feature":"17","num_nodes":"15","size_leaf_vector":"0"}},{"base_weights":[1.1697886E0,6.2713116E-1,2.0040004E0,2.2808686E-1,1.0357603E0,1.6227869E0,2.65395E0,-1.2812844E-1,3.028521E-1,9.352649E-1,1.7817901E0,1.3684032E0,2.0375972E0,2.5341651E0,4.469787E0],"categories":[],"categories_nodes":[],"categories_segments":[],"categories_sizes":[],"default_left":[1,1,1,1,1,1,1,0,0,0,0,0,0,0,0],"id":13,"left_children":[1,3,5,7,9,11,13,-1,-1,-1,-1,-1,-1,-1,-1],"loss_changes":[2.2287002E3,4.866643E2,4.7661328E2,4.0307167E1,1.0891809E2,1.2658081E2,1.4441016E2,0E0,0E0,0E0,0E0,0E0,0E0,0E0,0E0],"parents":[2147483647,0,0,1,1,2,2,3,3,4,4,5,5,6,6],"right_children":[2,4,6,8,10,12,14,-1,-1,-1,-1,-1,-1,-1,-1],"split_conditions":[6.141074E0,2.7961273E0,7.264252E1,1.0293269E0,8.37524E0,7.8492393E0,1.886716E2,-1.28128445E-2,3.028521E-2,9.352649E-2,1.7817901E-1,1.3684033E-1,2.0375971E-1,2.534165E-1,4.4697872E-1],"split_indices":[0,2,8,5,2,1,11,0,0,0,0,0,0,0,0],"split_type":[0,0,0,0,0,0,0,0,0,0,0,0,0,0,0],"sum_hessian":[4.925E3,2.985E3,1.94E3,1.511E3,1.474E3,1.225E3,7.15E2,2.62E2,1.249E3,1.301E3,1.73E2,7.62E2,4.63E2,6.73E2,4.2E1],"tree_param":{"num_deleted":"0","num_feature":"17","num_nodes":"15","size_leaf_vector":"0"}},{"base_weights":[1.0530797E0,5.945177E-1,1.8632157E0,2.4793608E-1,1.026825E0,1.6503637E0,2.718993E0,6.1367124E-2,4.1348502E-1,1.2996626E0,6.903264E-1,1.376785E0,1.986008E0,2.5546043E0,4.9665413E0],"categories":[],"categories_nodes":[],"categories_segments":[],"categories_sizes":[],"default_left":[1,1,1,1,1,1,1,0,0,0,0,0,0,0,0],"id":14,"left_children":[1,3,5,7,9,11,13,-1,-1,-1,-1,-1,-1,-1,-1],"loss_changes":[1.8288892E3,4.7125964E2,3.1974658E2,5.3963867E1,1.2763599E2,1.2839185E2,1.1773584E2,0E0,0E0,0E0,0E0,0E0,0E0,0E0,0E0],"parents":[2147483647,0,0,1,1,2,2,3,3,4,4,5,5,6,6],"right_children":[2,4,6,8,10,12,14,-1,-1,-1,-1,-1,-1,-1,-1],"split_conditions":[6.4101095E0,3.4594958E0,1.0860441E1,7.371759E1,3.05E1,8.075326E0,1.4572431E1,6.1367126E-3,4.1348502E-2,1.2996626E-1,6.903264E-2,1.376785E-1,1.9860081E-1,2.5546044E-1,4.9665412E-1],"split_indices":[2,0,2,10,15,1,0,0,0,0,0,0,0,0,0],"split_type":[0,0,0,0,0,0,0,0,0,0,0,0,0,0,0],"sum_hessian":[4.925E3,3.146E3,1.779E3,1.747E3,1.399E3,1.427E3,3.52E2,8.22E2,9.25E2,7.71E2,6.28E2,7.89E2,6.38E2,3.3E2,2.2E1],"tree_param":{"num_deleted":"0","num_feature":"17","num_nodes":"15","size_leaf_vector":"0"}},{"base_weights":[9.4804275E-1,5.125634E-1,1.6631315E0,2.4096419E-1,9.1656727E-1,1.3352436E0,2.2039726E0,4.3708034E-2,3.943645E-1,1.3325094E0,7.257041E-1,1.968697E0,1.190325E0,2.5062568E0,1.6404914E0],"categories":[],"categories_nodes":[],"categories_segments":[],"categories_sizes":[],"default_left":[1,1,1,1,1,1,1,0,0,0,0,0,0,0,0],"id":15,"left_children":[1,3,5,7,9,11,13,-1,-1,-1,-1,-1,-1,-1,-1],"loss_changes":[1.5331357E3,3.3587323E2,3.2760938E2,5.5447807E1,9.675964E1,1.0441919E2,1.15461426E2,0E0,0E0,0E0,0E0,0E0,0E0,0E0,0E0],"parents":[2147483647,0,0,1,1,2,2,3,3,4,4,5,5,6,6],"right_children":[2,4,6,8,10,12,14,-1,-1,-1,-1,-1,-1,-1,-1],"split_conditions":[6.2964144E0,3.6048565E0,7.264252E1,1.7453246E0,2.75E1,2.65E1,3.05E1,4.3708035E-3,3.9436452E-2,1.3325094E-1,7.2570406E-2,1.968697E-1,1.190325E-1,2.506257E-1,1.6404913E-1],"split_indices":[0,2,8,3,15,15,15,0,0,0,0,0,0,0,0],"split_type":[0,0,0,0,0,0,0,0,0,0,0,0,0,0,0],"sum_hessian":[4.925E3,3.062E3,1.863E3,1.832E3,1.23E3,1.162E3,7.01E2,8.02E2,1.03E3,3.85E2,8.45E2,2.14E2,9.48E2,4.54E2,2.47E2],"tree_param":{"num_deleted":"0","num_feature":"17","num_nodes":"15","size_leaf_vector":"0"}},{"base_weights":[8.5343754E-1,3.6689076E-1,1.3931702E0,1.244778E-1,6.458138E-1,1.163013E0,1.9574637E0,-2.6085383E-1,1.672271E-1,6.150981E-1,2.8899302E0,9.605987E-1,1.5539604E0,1.7186564E0,2.9944663E0],"categories":[],"categories_nodes":[],"categories_segments":[],"categories_sizes":[],"default_left":[1,1,1,1,1,1,1,0,0,0,0,0,0,0,0],"id":16,"left_children":[1,3,5,7,9,11,13,-1,-1,-1,-1,-1,-1,-1,-1],"loss_changes":[1.293082E3,1.7517657E2,3.0098438E2,2.2907667E1,8.128259E1,1.2994775E2,1.6201294E2,0E0,0E0,0E0,0E0,0E0,0E0,0E0,0E0],"parents":[2147483647,0,0,1,1,2,2,3,3,4,4,5,5,6,6],"right_children":[2,4,6,8,10,12,14,-1,-1,-1,-1,-1,-1,-1,-1],"split_conditions":[5.318324E0,2.528922E0,9.189172E0,2.0859356E1,1.523147E2,6.6329704E1,1.2021418E1,-2.6085382E-2,1.672271E-2,6.1509814E-2,2.8899303E-1,9.605987E-2,1.5539604E-1,1.7186564E-1,2.9944664E-1],"split_indices":[1,1,0,8,11,6,2,0,0,0,0,0,0,0,0],"split_type":[0,0,0,0,0,0,0,0,0,0,0,0,0,0,0],"sum_hessian":[4.925E3,2.591E3,2.334E3,1.387E3,1.204E3,1.66E3,6.74E2,1.38E2,1.249E3,1.189E3,1.5E1,1.096E3,5.64E2,5.5E2,1.24E2],"tree_param":{"num_deleted":"0","num_feature":"17","num_nodes":"15","size_leaf_vector":"0"}},{"base_weights":[7.6830983E-1,3.2822064E-1,1.2577022E0,1.18713945E-1,5.86486E-1,1.1034807E0,2.0181265E0,-1.4463842E-1,1.7390452E-1,7.421459E-1,2.7284625E-1,1.3190964E0,7.637667E-1,2.5111184E-1,2.1481493E0],"categories":[],"categories_nodes":[],"categories_segments":[],"categories_sizes":[],"default_left":[1,1,1,1,1,1,1,0,0,0,0,0,0,0,0],"id":17,"left_children":[1,3,5,7,9,11,13,-1,-1,-1,-1,-1,-1,-1,-1],"loss_changes":[1.060531E3,1.4034149E2,2.7125537E2,2.0867725E1,5.652765E1,1.4116626E2,8.952344E1,0E0,0E0,0E0,0E0,0E0,0E0,0E0,0E0],"parents":[2147483647,0,0,1,1,2,2,3,3,4,4,5,5,6,6],"right_children":[2,4,6,8,10,12,14,-1,-1,-1,-1,-1,-1,-1,-1],"split_conditions":[5.451808E0,2.6820118E0,9.020537E0,1.0333316E0,3.15E1,3.05E1,5.614164E1,-1.4463842E-2,1.7390452E-2,7.421459E-2,2.7284626E-2,1.3190965E-1,7.637667E-2,2.5111184E-2,2.1481493E-1],"split_indices":[4,2,5,4,15,15,6,0,0,0,0,0,0,0,0],"split_type":[0,0,0,0,0,0,0,0,0,0,0,0,0,0,0],"sum_hessian":[4.925E3,2.594E3,2.331E3,1.433E3,1.161E3,1.94E3,3.91E2,2.48E2,1.185E3,7.75E2,3.86E2,1.185E3,7.55E2,2.7E1,3.64E2],"tree_param":{"num_deleted":"0","num_feature":"17","num_nodes":"15","size_leaf_vector":"0"}},{"base_weights":[6.9159096E-1,3.696946E-1,1.260308E0,1.3691084E-1,6.600777E-1,1.1503971E0,2.1849244E0,5.7723586E-2,3.3894634E-1,1.4737256E0,5.784502E-1,1.4261984E0,8.240431E-1,1.8352686E0,3.8321433E0],"categories":[],"categories_nodes":[],"categories_segments":[],"categories_sizes":[],"default_left":[1,1,1,1,1,1,1,0,0,0,0,0,0,0,0],"id":18,"left_children":[1,3,5,7,9,11,13,-1,-1,-1,-1,-1,-1,-1,-1],"loss_changes":[9.0132666E2,2.1263565E2,1.7838013E2,2.7946053E1,9.2129944E1,1.4220874E2,1.01247375E2,0E0,0E0,0E0,0E0,0E0,0E0,0E0,0E0],"parents":[2147483647,0,0,1,1,2,2,3,3,4,4,5,5,6,6],"right_children":[2,4,6,8,10,12,14,-1,-1,-1,-1,-1,-1,-1,-1],"split_conditions":[6.4101095E0,3.4594958E0,1.2021418E1,8.863097E1,2.55E1,2.95E1,1.3387709E1,5.7723587E-3,3.3894636E-2,1.4737256E-1,5.7845023E-2,1.4261983E-1,8.240431E-2,1.8352686E-1,3.8321432E-1],"split_indices":[2,0,2,10,15,15,0,0,0,0,0,0,0,0,0],"split_type":[0,0,0,0,0,0,0,0,0,0,0,0,0,0,0],"sum_hessian":[4.925E3,3.146E3,1.779E3,1.747E3,1.399E3,1.592E3,1.87E2,1.256E3,4.91E2,1.26E2,1.273E3,8.61E2,7.31E2,1.56E2,3.1E1],"tree_param":{"num_deleted":"0","num_feature":"17","num_nodes":"15","size_leaf_vector":"0"}},{"base_weights":[6.2264234E-1,3.150292E-1,1.1277907E0,9.485457E-2,5.3271174E-1,8.124826E-1,1.4719453E0,8.637046E-2,2.2269397E0,7.2669494E-1,3.263463E-1,3.897342E-1,9.882661E-1,2.7415054E0,1.3669301E0],"categories":[],"categories_nodes":[],"categories_segments":[],"categories_sizes":[],"default_left":[1,1,1,1,1,1,1,0,0,0,0,0,0,0,0],"id":19,"left_children":[1,3,5,7,9,11,13,-1,-1,-1,-1,-1,-1,-1,-1],"loss_changes":[7.6509717E2,1.4675348E2,2.0107568E2,2.7375061E1,6.1411224E1,7.2069214E1,1.14910034E2,0E0,0E0,0E0,0E0,0E0,0E0,0E0,0E0],"parents":[2147483647,0,0,1,1,2,2,3,3,4,4,5,5,6,6],"right_children":[2,4,6,8,10,12,14,-1,-1,-1,-1,-1,-1,-1,-1],"split_conditions":[6.2964144E0,2.9094255E0,8.075326E0,6.79509E0,2.95E1,9.401087E1,2.45E1,8.637046E-3,2.2269396E-1,7.26695E-2,3.263463E-2,3.897342E-2,9.882661E-2,2.7415055E-1,1.3669302E-1],"split_indices":[0,1,1,3,15,11,15,0,0,0,0,0,0,0,0],"split_type":[0,0,0,0,0,0,0,0,0,0,0,0,0,0,0],"sum_hessian":[4.925E3,3.062E3,1.863E3,1.523E3,1.539E3,9.74E2,8.89E2,1.518E3,5E0,7.92E2,7.47E2,2.87E2,6.87E2,6.6E1,8.23E2],"tree_param":{"num_deleted":"0","num_feature":"17","num_nodes":"15","size_leaf_vector":"0"}},{"base_weights":[5.6055784E-1,2.603349E-1,9.872955E-1,1.037173E-1,5.2122056E-1,8.3989537E-1,1.6350338E0,-7.769694E-2,1.6260764E-1,1.1670591E0,4.20355E-1,1.1538732E0,6.2973356E-1,1.4452753E0,2.7642174E0],"categories":[],"categories_nodes":[],"categories_segments":[],"categories_sizes":[],"default_left":[1,1,1,1,1,1,1,0,0,0,0,0,0,0,0],"id":20,"left_children":[1,3,5,7,9,11,13,-1,-1,-1,-1,-1,-1,-1,-1],"loss_changes":[6.308446E2,1.1815187E2,1.9282642E2,1.933917E1,7.018942E1,1.0874451E2,7.657129E1,0E0,0E0,0E0,0E0,0E0,0E0,0E0,0E0],"parents":[2147483647,0,0,1,1,2,2,3,3,4,4,5,5,6,6],"right_children":[2,4,6,8,10,12,14,-1,-1,-1,-1,-1,-1,-1,-1],"split_conditions":[5.8425636E0,3.6156802E0,9.020537E0,6.2167717E1,2.55E1,2.85E1,1.8290616E2,-7.769694E-3,1.6260764E-2,1.1670591E-1,4.20355E-2,1.1538732E-1,6.297336E-2,1.4452754E-1,2.7642176E-1],"split_indices":[3,2,5,9,15,15,11,0,0,0,0,0,0,0,0],"split_type":[0,0,0,0,0,0,0,0,0,0,0,0,0,0,0],"sum_hessian":[4.925E3,2.892E3,2.033E3,1.808E3,1.084E3,1.658E3,3.75E2,4.43E2,1.365E3,1.45E2,9.39E2,6.63E2,9.95E2,3.23E2,5.2E1],"tree_param":{"num_deleted":"0","num_feature":"17","num_nodes":"15","size_leaf_vector":"0"}},{"base_weights":[5.046576E-1,1.9395623E-1,8.493401E-1,1.7280857E-1,1.4738064E0,7.1326023E-1,1.3576366E0,4.6430297E-2,3.228836E-1,8.6348546E-1,3.615707E0,1.0528893E0,5.4941505E-1,1.275831E0,3.5683315E0],"categories":[],"categories_nodes":[],"categories_segments":[],"categories_sizes":[],"default_left":[1,1,1,1,1,1,1,0,0,0,0,0,0,0,0],"id":21,"left_children":[1,3,5,7,9,11,13,-1,-1,-1,-1,-1,-1,-1,-1],"loss_changes":[5.2737695E2,6.989993E1,1.6054114E2,4.836785E1,5.1782265E1,1.0203375E2,8.4424194E1,0E0,0E0,0E0,0E0,0E0,0E0,0E0,0E0],"parents":[2147483647,0,0,1,1,2,2,3,3,4,4,5,5,6,6],"right_children":[2,4,6,8,10,12,14,-1,-1,-1,-1,-1,-1,-1,-1],"split_conditions":[5.318324E0,9.764636E0,8.57527E0,2.528922E0,8.5716805E1,2.75E1,1.5892073E1,4.64303E-3,3.228836E-2,8.634855E-2,3.615707E-1,1.0528894E-1,5.4941505E-2,1.275831E-1,3.5683316E-1],"split_indices":[1,2,4,1,8,15,1,0,0,0,0,0,0,0,0],"split_type":[0,0,0,0,0,0,0,0,0,0,0,0,0,0,0],"sum_hessian":[4.925E3,2.591E3,2.334E3,2.55E3,4.1E1,1.843E3,4.91E2,1.385E3,1.165E3,3.3E1,8E0,5.98E2,1.245E3,4.75E2,1.6E1],"tree_param":{"num_deleted":"0","num_feature":"17","num_nodes":"15","size_leaf_vector":"0"}},{"base_weights":[4.544211E-1,1.9846617E-1,8.1161577E-1,4.3082993E-2,3.49024E-1,5.3207594E-1,1.0622715E0,5.670059E-2,-1.0161874E0,7.8561956E-1,2.8417036E-1,3.6195165E-1,8.6297923E-1,1.5038995E0,8.347405E-1],"categories":[],"categories_nodes":[],"categories_segments":[],"categories_sizes":[],"default_left":[1,1,1,1,1,1,1,0,0,0,0,0,0,0,0],"id":22,"left_children":[1,3,5,7,9,11,13,-1,-1,-1,-1,-1,-1,-1,-1],"loss_changes":[4.502021E2,6.714959E1,1.4349524E2,2.045417E1,4.1059753E1,5.4518646E1,1.0756897E2,0E0,0E0,0E0,0E0,0E0,0E0,0E0,0E0],"parents":[2147483647,0,0,1,1,2,2,3,3,4,4,5,5,6,6],"right_children":[2,4,6,8,10,12,14,-1,-1,-1,-1,-1,-1,-1,-1],"split_conditions":[5.8869452E0,2.573556E0,6.950174E0,5.608359E0,2.55E1,7.0680594E0,2.75E1,5.670059E-3,-1.01618744E-1,7.8561954E-2,2.8417036E-2,3.6195166E-2,8.629792E-2,1.5038995E-1,8.3474055E-2],"split_indices":[0,2,5,13,15,2,15,0,0,0,0,0,0,0,0],"split_type":[0,0,0,0,0,0,0,0,0,0,0,0,0,0,0],"sum_hessian":[4.925E3,2.87E3,2.055E3,1.413E3,1.457E3,9.73E2,1.082E3,1.396E3,1.7E1,1.87E2,1.27E3,6.44E2,3.29E2,3.66E2,7.16E2],"tree_param":{"num_deleted":"0","num_feature":"17","num_nodes":"15","size_leaf_vector":"0"}},{"base_weights":[4.0905353E-1,2.1754055E-1,7.990297E-1,6.575285E-2,3.8832045E-1,4.098258E-1,9.751295E-1,5.6440875E-2,2.0875437E0,5.470782E-1,7.7599324E-2,3.4549603E-1,1.4582442E0,1.2105366E0,6.09341E-1],"categories":[],"categories_nodes":[],"categories_segments":[],"categories_sizes":[],"default_left":[1,1,1,1,1,1,1,0,0,0,0,0,0,0,0],"id":23,"left_children":[1,3,5,7,9,11,13,-1,-1,-1,-1,-1,-1,-1,-1],"loss_changes":[3.6772705E2,8.564763E1,1.1077014E2,3.2848007E1,7.666472E1,3.369055E1,9.536023E1,0E0,0E0,0E0,0E0,0E0,0E0,0E0,0E0],"parents":[2147483647,0,0,1,1,2,2,3,3,4,4,5,5,6,6],"right_children":[2,4,6,8,10,12,14,-1,-1,-1,-1,-1,-1,-1,-1],"split_conditions":[6.832893E0,3.4594958E0,6.8217087E0,7.2114515E0,3.15E1,6.8481507E0,3.05E1,5.6440877E-3,2.0875438E-1,5.470782E-2,7.7599324E-3,3.4549605E-2,1.4582442E-1,1.2105366E-1,6.0934104E-2],"split_indices":[1,0,0,4,15,14,15,0,0,0,0,0,0,0,0],"split_type":[0,0,0,0,0,0,0,0,0,0,0,0,0,0,0],"sum_hessian":[4.925E3,3.304E3,1.621E3,1.75E3,1.554E3,5.06E2,1.115E3,1.743E3,7E0,1.028E3,5.26E2,4.78E2,2.8E1,6.77E2,4.38E2],"tree_param":{"num_deleted":"0","num_feature":"17","num_nodes":"15","size_leaf_vector":"0"}},{"base_weights":[3.682779E-1,1.993853E-1,7.33939E-1,5.6133784E-2,3.5697162E-1,5.345065E-1,1.0857208E0,-6.639251E-3,2.1433006E-1,9.583281E-1,2.9522896E-1,7.6578575E-1,3.259978E-1,9.5546603E-1,1.9875761E0],"categories":[],"categories_nodes":[],"categories_segments":[],"categories_sizes":[],"default_left":[1,1,1,1,1,1,1,0,0,0,0,0,0,0,0],"id":24,"left_children":[1,3,5,7,9,11,13,-1,-1,-1,-1,-1,-1,-1,-1],"loss_changes":[3.0407086E2,7.607854E1,1.0858356E2,1.7548546E1,5.9309692E1,4.773297E1,6.411957E1,0E0,0E0,0E0,0E0,0E0,0E0,0E0,0E0],"parents":[2147483647,0,0,1,1,2,2,3,3,4,4,5,5,6,6],"right_children":[2,4,6,8,10,12,14,-1,-1,-1,-1,-1,-1,-1,-1],"split_conditions":[6.8933163E0,3.4594958E0,9.166068E0,8.863097E1,2.55E1,2.85E1,1.3327626E1,-6.6392514E-4,2.1433007E-2,9.583282E-2,2.9522896E-2,7.657858E-2,3.259978E-2,9.55466E-2,1.9875762E-1],"split_indices":[2,0,0,10,15,15,2,0,0,0,0,0,0,0,0],"split_type":[0,0,0,0,0,0,0,0,0,0,0,0,0,0,0],"sum_hessian":[4.925E3,3.37E3,1.555E3,1.766E3,1.604E3,9.94E2,5.61E2,1.265E3,5.01E2,1.48E2,1.456E3,4.7E2,5.24E2,4.92E2,6.9E1],"tree_param":{"num_deleted":"0","num_feature":"17","num_nodes":"15","size_leaf_vector":"0"}},{"base_weights":[3.3156165E-1,1.4166643E-1,6.0149056E-1,4.5785975E-2,3.013955E-1,4.7941938E-1,1.0033377E0,6.738374E-2,-3.6747998E-1,7.810678E-1,2.265726E-1,6.6003525E-1,1.9872685E-1,9.3127435E-1,2.8815496E0],"categories":[],"categories_nodes":[],"categories_segments":[],"categories_sizes":[],"default_left":[1,1,1,1,1,1,1,0,0,0,0,0,0,0,0],"id":25,"left_children":[1,3,5,7,9,11,13,-1,-1,-1,-1,-1,-1,-1,-1],"loss_changes":[2.5241284E2,4.4292194E1,9.929468E1,1.6171207E1,3.876419E1,7.905841E1,6.133716E1,0E0,0E0,0E0,0E0,0E0,0E0,0E0,0E0],"parents":[2147483647,0,0,1,1,2,2,3,3,4,4,5,5,6,6],"right_children":[2,4,6,8,10,12,14,-1,-1,-1,-1,-1,-1,-1,-1],"split_conditions":[5.8425636E0,3.6156802E0,8.600977E0,5.671844E1,2.55E1,3.05E1,1.5892073E1,6.7383735E-3,-3.6748E-2,7.810678E-2,2.265726E-2,6.6003524E-2,1.9872686E-2,9.312744E-2,2.8815496E-1],"split_indices":[3,2,4,8,15,15,1,0,0,0,0,0,0,0,0],"split_type":[0,0,0,0,0,0,0,0,0,0,0,0,0,0,0],"sum_hessian":[4.925E3,2.892E3,2.033E3,1.808E3,1.084E3,1.561E3,4.72E2,1.719E3,8.9E1,1.45E2,9.39E2,9.49E2,6.12E2,4.56E2,1.6E1],"tree_param":{"num_deleted":"0","num_feature":"17","num_nodes":"15","size_leaf_vector":"0"}},{"base_weights":[2.985147E-1,1.5277164E-1,5.963919E-1,2.530509E-1,-3.7734687E-2,2.579471E-1,7.3102033E-1,9.29426E-2,4.228113E-1,-5.1346824E-2,1.1483768E0,3.038225E-1,-1.6505641E0,1.0951571E0,5.5706614E-1],"categories":[],"categories_nodes":[],"categories_segments":[],"categories_sizes":[],"default_left":[1,1,1,1,1,1,1,0,0,0,0,0,0,0,0],"id":26,"left_children":[1,3,5,7,9,11,13,-1,-1,-1,-1,-1,-1,-1,-1],"loss_changes":[2.1376395E2,6.3224136E1,7.3534485E1,5.8887054E1,1.849714E1,4.0951286E1,7.267786E1,0E0,0E0,0E0,0E0,0E0,0E0,0E0,0E0],"parents":[2147483647,0,0,1,1,2,2,3,3,4,4,5,5,6,6],"right_children":[2,4,6,8,10,12,14,-1,-1,-1,-1,-1,-1,-1,-1],"split_conditions":[6.836136E0,3.15E1,6.5931654E0,3.6906872E0,8.573555E0,6.518417E0,2.75E1,9.29426E-3,4.2281132E-2,-5.1346826E-3,1.14837684E-1,3.038225E-2,-1.6505641E-1,1.0951572E-1,5.5706616E-2],"split_indices":[1,15,0,5,4,0,15,0,0,0,0,0,0,0,0],"split_type":[0,0,0,0,0,0,0,0,0,0,0,0,0,0,0],"sum_hessian":[4.925E3,3.308E3,1.617E3,2.167E3,1.141E3,4.61E2,1.156E3,1.116E3,1.051E3,1.129E3,1.2E1,4.51E2,1E1,3.72E2,7.84E2],"tree_param":{"num_deleted":"0","num_feature":"17","num_nodes":"15","size_leaf_vector":"0"}},{"base_weights":[2.6870212E-1,1.7048043E-1,6.368928E-1,1.5549155E-1,1.2957121E0,5.9543854E-1,2.225925E0,1.512925E-2,2.513151E-1,2.958774E0,8.1792206E-1,5.7039243E-1,3.0480208E0,2.611655E0,-5.485048E-1],"categories":[],"categories_nodes":[],"categories_segments":[],"categories_sizes":[],"default_left":[1,1,1,1,1,1,1,0,0,0,0,0,0,0,0],"id":27,"left_children":[1,3,5,7,9,11,13,-1,-1,-1,-1,-1,-1,-1,-1],"loss_changes":[1.7803687E2,6.540713E1,6.698404E1,5.164425E1,3.810427E1,6.042621E1,2.9257233E1,0E0,0E0,0E0,0E0,0E0,0E0,0E0,0E0],"parents":[2147483647,0,0,1,1,2,2,3,3,4,4,5,5,6,6],"right_children":[2,4,6,8,10,12,14,-1,-1,-1,-1,-1,-1,-1,-1],"split_conditions":[7.372881E0,1.1790109E1,1.966181E2,2.9094255E0,2.55E1,1.5970297E1,2.466608E2,1.512925E-3,2.5131509E-2,2.9587743E-1,8.1792206E-2,5.7039242E-2,3.048021E-1,2.611655E-1,-5.4850485E-2],"split_indices":[4,2,11,1,15,1,10,0,0,0,0,0,0,0,0],"split_type":[0,0,0,0,0,0,0,0,0,0,0,0,0,0,0],"sum_hessian":[4.925E3,3.889E3,1.036E3,3.839E3,5E1,1.011E3,2.5E1,1.558E3,2.281E3,1E1,4E1,1.002E3,9E0,2.2E1,3E0],"tree_param":{"num_deleted":"0","num_feature":"17","num_nodes":"15","size_leaf_vector":"0"}},{"base_weights":[2.4202928E-1,1.5664773E-1,6.006106E-1,3.8693767E-2,2.790512E-1,1.202978E0,4.3976715E-1,5.2377917E-2,-9.0637493E-1,4.1335696E-1,1.3357796E-1,9.517866E-1,2.0921426E0,4.0817267E-1,3.7304747E0],"categories":[],"categories_nodes":[],"categories_segments":[],"categories_sizes":[],"default_left":[1,1,1,1,1,1,1,0,0,0,0,0,0,0,0],"id":28,"left_children":[1,3,5,7,9,11,13,-1,-1,-1,-1,-1,-1,-1,-1],"loss_changes":[1.5072144E2,5.745234E1,9.122281E1,2.6274506E1,3.8102295E1,4.2455475E1,7.634958E1,0E0,0E0,0E0,0E0,0E0,0E0,0E0,0E0],"parents":[2147483647,0,0,1,1,2,2,3,3,4,4,5,5,6,6],"right_children":[2,4,6,8,10,12,14,-1,-1,-1,-1,-1,-1,-1,-1],"split_conditions":[8.4651165E0,4.9076508E1,2.65E1,5.99125E0,2.95E1,1.1834133E1,1.59459305E1,5.2377917E-3,-9.06375E-2,4.13357E-2,1.3357796E-2,9.517866E-2,2.0921426E-1,4.081727E-2,3.7304747E-1],"split_indices":[0,6,15,3,15,2,0,0,0,0,0,0,0,0,0],"split_type":[0,0,0,0,0,0,0,0,0,0,0,0,0,0,0],"sum_hessian":[4.925E3,3.979E3,9.46E2,2.027E3,1.952E3,1.98E2,7.48E2,1.999E3,2.8E1,1.014E3,9.38E2,1.56E2,4.2E1,7.42E2,6E0],"tree_param":{"num_deleted":"0","num_feature":"17","num_nodes":"15","size_leaf_vector":"0"}},{"base_weights":[2.1796596E-1,1.1691517E-1,4.796406E-1,4.9776083E-1,7.556504E-2,5.560157E-1,-1.8583344E-1,1.2485203E-1,8.8302404E-1,4.602092E-2,4.7661874E-1,5.086717E-1,1.4404739E0,-2.747032E-1,2.304139E0],"categories":[],"categories_nodes":[],"categories_segments":[],"categories_sizes":[],"default_left":[1,1,1,1,1,1,1,0,0,0,0,0,0,0,0],"id":29,"left_children":[1,3,5,7,9,11,13,-1,-1,-1,-1,-1,-1,-1,-1],"loss_changes":[1.3019934E2,5.594659E1,6.983606E1,4.988623E1,3.7988953E1,5.0813812E1,3.2055183E1,0E0,0E0,0E0,0E0,0E0,0E0,0E0,0E0],"parents":[2147483647,0,0,1,1,2,2,3,3,4,4,5,5,6,6],"right_children":[2,4,6,8,10,12,14,-1,-1,-1,-1,-1,-1,-1,-1],"split_conditions":[7.318713E0,2.55E1,3.45E1,3.7803473E0,7.311079E0,1.3475468E1,1.9652011E2,1.2485203E-2,8.83024E-2,4.6020923E-3,4.7661874E-2,5.086717E-2,1.440474E-1,-2.747032E-2,2.304139E-1],"split_indices":[2,15,15,5,5,0,11,0,0,0,0,0,0,0,0],"split_type":[0,0,0,0,0,0,0,0,0,0,0,0,0,0,0],"sum_hessian":[4.925E3,3.554E3,1.371E3,3.47E2,3.207E3,1.23E3,1.41E2,1.77E2,1.7E2,2.988E3,2.19E2,1.169E3,6.1E1,1.37E2,4E0],"tree_param":{"num_deleted":"0","num_feature":"17","num_nodes":"15","size_leaf_vector":"0"}},{"base_weights":[1.9628124E-1,7.0257984E-2,3.7216473E-1,1.7158847E-1,-2.6702678E-2,1.0123471E0,3.2485896E-1,1.48526E-1,1.7600851E0,-1.1741044E-2,-1.4752036E0,5.9994763E-1,1.8243811E0,2.9787973E-1,1.5827376E0],"categories":[],"categories_nodes":[],"categories_segments":[],"categories_sizes":[],"default_left":[1,1,1,1,1,1,1,0,0,0,0,0,0,0,0],"id":30,"left_children":[1,3,5,7,9,11,13,-1,-1,-1,-1,-1,-1,-1,-1],"loss_changes":[1.0916063E2,2.8212362E1,6.193573E1,5.1173634E1,3.179709E1,4.612387E1,6.455104E1,0E0,0E0,0E0,0E0,0E0,0E0,0E0,0E0],"parents":[2147483647,0,0,1,1,2,2,3,3,4,4,5,5,6,6],"right_children":[2,4,6,8,10,12,14,-1,-1,-1,-1,-1,-1,-1,-1],"split_conditions":[5.8869452E0,2.95E1,2.45E1,1.5192827E2,8.2195465E1,9.328527E0,1.886716E2,1.48526E-2,1.7600851E-1,-1.1741044E-3,-1.4752036E-1,5.9994765E-2,1.8243812E-1,2.9787973E-2,1.5827376E-1],"split_indices":[0,15,15,11,6,1,11,0,0,0,0,0,0,0,0],"split_type":[0,0,0,0,0,0,0,0,0,0,0,0,0,0,0],"sum_hessian":[4.925E3,2.87E3,2.055E3,1.403E3,1.467E3,1.4E2,1.915E3,1.384E3,1.9E1,1.453E3,1.4E1,9.4E1,4.6E1,1.876E3,3.9E1],"tree_param":{"num_deleted":"0","num_feature":"17","num_nodes":"15","size_leaf_vector":"0"}},{"base_weights":[1.7674907E-1,5.8252454E-2,3.411686E-1,1.618649E-1,-1.2444939E-1,2.567445E-1,6.649844E-1,1.882298E-1,-5.3390825E-1,-1.6136946E-2,-4.1865978E-1,2.1293384E-1,8.69346E-1,7.213601E-1,-1.5274934E0],"categories":[],"categories_nodes":[],"categories_segments":[],"categories_sizes":[],"default_left":[1,1,1,1,1,1,1,0,0,0,0,0,0,0,0],"id":31,"left_children":[1,3,5,7,9,11,13,-1,-1,-1,-1,-1,-1,-1,-1],"loss_changes":[9.595418E1,5.42362E1,5.6227264E1,3.3633297E1,3.3038956E1,4.377632E1,5.375647E1,0E0,0E0,0E0,0E0,0E0,0E0,0E0,0E0],"parents":[2147483647,0,0,1,1,2,2,3,3,4,4,5,5,6,6],"right_children":[2,4,6,8,10,12,14,-1,-1,-1,-1,-1,-1,-1,-1],"split_conditions":[1.0122386E2,3.15E1,1.0265831E1,5.7961926E0,2.7765248E0,9.525789E0,8.501263E0,1.8822981E-2,-5.3390827E-2,-1.6136946E-3,-4.186598E-2,2.1293385E-2,8.6934604E-2,7.213601E-2,-1.5274934E-1],"split_indices":[11,15,2,12,13,4,14,0,0,0,0,0,0,0,0],"split_type":[0,0,0,0,0,0,0,0,0,0,0,0,0,0,0],"sum_hessian":[4.925E3,2.863E3,2.062E3,1.827E3,1.036E3,1.637E3,4.25E2,1.761E3,6.6E1,7.58E2,2.78E2,1.529E3,1.08E2,4.15E2,1E1],"tree_param":{"num_deleted":"0","num_feature":"17","num_nodes":"15","size_leaf_vector":"0"}},{"base_weights":[1.5906392E-1,3.4052026E-2,2.9608375E-1,2.7375733E-2,2.481294E0,3.5499728E-1,-1.1711762E-1,4.911122E-1,2.8774198E-3,2.9284322E-1,4.0494213E0,2.2371186E-1,5.356545E-1,-1.521034E-1,1.9354805E0],"categories":[],"categories_nodes":[],"categories_segments":[],"categories_sizes":[],"default_left":[1,1,1,1,1,1,1,0,0,0,0,0,0,0,0],"id":32,"left_children":[1,3,5,7,9,11,13,-1,-1,-1,-1,-1,-1,-1,-1],"loss_changes":[8.4367905E1,4.2036392E1,5.7247955E1,2.9207104E1,2.2836533E1,4.866739E1,2.1407042E1,0E0,0E0,0E0,0E0,0E0,0E0,0E0,0E0],"parents":[2147483647,0,0,1,1,2,2,3,3,4,4,5,5,6,6],"right_children":[2,4,6,8,10,12,14,-1,-1,-1,-1,-1,-1,-1,-1],"split_conditions":[5.2693014E0,9.578578E0,3.45E1,2.45E1,8.691974E0,8.16518E0,1.9652011E2,4.911122E-2,2.8774198E-4,2.9284323E-2,4.0494213E-1,2.2371186E-2,5.356545E-2,-1.521034E-2,1.9354805E-1],"split_indices":[1,3,15,15,2,0,11,0,0,0,0,0,0,0,0],"split_type":[0,0,0,0,0,0,0,0,0,0,0,0,0,0,0],"sum_hessian":[4.925E3,2.576E3,2.349E3,2.57E3,6E0,2.056E3,2.93E2,1.28E2,2.442E3,3E0,3E0,1.192E3,8.64E2,2.89E2,4E0],"tree_param":{"num_deleted":"0","num_feature":"17","num_nodes":"15","size_leaf_vector":"0"}},{"base_weights":[1.4330734E-1,3.0834518E-2,2.665836E-1,2.46574E-2,2.2951968E0,2.6142246E-1,4.2171555E0,1.714782E-2,1.5009929E0,-2.3735778E-1,3.35569E0,3.1368905E-1,-1.0479945E-1],"categories":[],"categories_nodes":[],"categories_segments":[],"categories_sizes":[],"default_left":[1,1,1,1,1,1,0,0,0,0,0,0,0],"id":33,"left_children":[1,3,5,7,9,11,-1,-1,-1,-1,-1,-1,-1],"loss_changes":[6.829189E1,3.5988506E1,4.681253E1,2.8478067E1,1.9596798E1,4.497632E1,0E0,0E0,0E0,0E0,0E0,0E0,0E0],"parents":[2147483647,0,0,1,1,2,2,3,3,4,4,5,5],"right_children":[2,4,6,8,10,12,-1,-1,-1,-1,-1,-1,-1],"split_conditions":[5.2693014E0,9.578578E0,1.7619541E1,1.1633527E1,4.191026E0,3.45E1,4.2171556E-1,1.7147821E-3,1.5009929E-1,-2.3735778E-2,3.35569E-1,3.1368908E-2,-1.0479945E-2],"split_indices":[1,3,0,2,1,15,0,0,0,0,0,0,0],"split_type":[0,0,0,0,0,0,0,0,0,0,0,0,0],"sum_hessian":[4.925E3,2.576E3,2.349E3,2.57E3,6E0,2.347E3,2E0,2.558E3,1.2E1,2E0,4E0,2.054E3,2.93E2],"tree_param":{"num_deleted":"0","num_feature":"17","num_nodes":"13","size_leaf_vector":"0"}},{"base_weights":[1.291606E-1,9.6653536E-2,5.134065E-1,-3.621501E-2,1.6054444E-1,-4.0900162E-1,6.59112E-1,-2.2558017E-2,-1.4607842E0,1.9653654E-1,-2.086659E-1,-6.6201496E-1,2.8559158E0,7.2162014E-1,-2.3461397E0],"categories":[],"categories_nodes":[],"categories_segments":[],"categories_sizes":[],"default_left":[1,1,1,1,1,1,1,0,0,0,0,0,0,0,0],"id":34,"left_children":[1,3,5,7,9,11,13,-1,-1,-1,-1,-1,-1,-1,-1],"loss_changes":[6.1479584E1,3.8571762E1,5.1879158E1,2.8683123E1,4.0810593E1,4.5672245E1,6.4060104E1,0E0,0E0,0E0,0E0,0E0,0E0,0E0,0E0],"parents":[2147483647,0,0,1,1,2,2,3,3,4,4,5,5,6,6],"right_children":[2,4,6,8,10,12,14,-1,-1,-1,-1,-1,-1,-1,-1],"split_conditions":[1.0690405E1,7.905E1,2.1549988E0,9.028336E0,5.960787E0,1.4395784E1,1.2391473E1,-2.2558018E-3,-1.4607842E-1,1.9653654E-2,-2.0866591E-2,-6.62015E-2,2.8559157E-1,7.216202E-2,-2.3461397E-1],"split_indices":[2,11,12,1,12,1,4,0,0,0,0,0,0,0,0],"split_type":[0,0,0,0,0,0,0,0,0,0,0,0,0,0,0],"sum_hessian":[4.925E3,4.542E3,3.83E2,1.475E3,3.067E3,5.2E1,3.31E2,1.462E3,1.3E1,2.795E3,2.72E2,4.9E1,3E0,3.25E2,6E0],"tree_param":{"num_deleted":"0","num_feature":"17","num_nodes":"15","size_leaf_vector":"0"}},{"base_weights":[1.1622574E-1,5.4557246E-1,8.954584E-2,4.5319974E-1,2.4647493E0,5.3417783E-2,4.2164773E-1,2.048269E-1,9.319128E-1,3.4191918E0,2.5380325E-1,1.0105156E-1,-1.8592457E-1,2.928224E0,3.7594625E-1],"categories":[],"categories_nodes":[],"categories_segments":[],"categories_sizes":[],"default_left":[1,1,1,1,1,1,1,0,0,0,0,0,0,0,0],"id":35,"left_children":[1,3,5,7,9,11,13,-1,-1,-1,-1,-1,-1,-1,-1],"loss_changes":[5.6378136E1,4.9939507E1,5.5637104E1,3.262533E1,2.6565079E1,4.7731052E1,5.1021324E1,0E0,0E0,0E0,0E0,0E0,0E0,0E0,0E0],"parents":[2147483647,0,0,1,1,2,2,3,3,4,4,5,5,6,6],"right_children":[2,4,6,8,10,12,14,-1,-1,-1,-1,-1,-1,-1,-1],"split_conditions":[2.45E1,1.3537827E1,8.600977E0,3.5398865E0,1.0083574E1,4.4411545E0,8.6221695E0,2.0482691E-2,9.319128E-2,3.4191918E-1,2.5380326E-2,1.0105156E-2,-1.8592458E-2,2.9282242E-1,3.7594628E-2],"split_indices":[15,2,4,13,5,13,4,0,0,0,0,0,0,0,0],"split_type":[0,0,0,0,0,0,0,0,0,0,0,0,0,0,0],"sum_hessian":[4.925E3,2.87E2,4.638E3,2.75E2,1.2E1,4.184E3,4.54E2,1.82E2,9.3E1,8E0,4E0,3.49E3,6.94E2,7E0,4.47E2],"tree_param":{"num_deleted":"0","num_feature":"17","num_nodes":"15","size_leaf_vector":"0"}},{"base_weights":[1.0476616E-1,1.3343731E-2,2.1841365E-1,5.5116992E-2,-2.4134508E-1,2.1340251E-1,3.8104267E0,2.303105E-2,4.5819104E-1,-8.2700424E-2,-6.926553E-1,2.6760218E-1,-1.00242406E-1],"categories":[],"categories_nodes":[],"categories_segments":[],"categories_sizes":[],"default_left":[1,1,1,1,1,1,0,0,0,0,0,0,0],"id":36,"left_children":[1,3,5,7,9,11,-1,-1,-1,-1,-1,-1,-1],"loss_changes":[5.1177876E1,2.9068909E1,3.871508E1,3.0343222E1,2.7507935E1,3.7323593E1,0E0,0E0,0E0,0E0,0E0,0E0,0E0],"parents":[2147483647,0,0,1,1,2,2,3,3,4,4,5,5],"right_children":[2,4,6,8,10,12,-1,-1,-1,-1,-1,-1,-1],"split_conditions":[5.6048508E1,3.749649E0,1.7619541E1,5.8461914E0,3.15E1,5.939722E0,3.810427E-1,2.303105E-3,4.5819104E-2,-8.270043E-3,-6.926554E-2,2.6760219E-2,-1.0024241E-2],"split_indices":[6,13,0,3,15,12,0,0,0,0,0,0,0],"split_type":[0,0,0,0,0,0,0,0,0,0,0,0,0],"sum_hessian":[4.925E3,2.73E3,2.195E3,2.346E3,3.84E2,2.193E3,2E0,2.174E3,1.72E2,2.85E2,9.9E1,1.87E3,3.23E2],"tree_param":{"num_deleted":"0","num_feature":"17","num_nodes":"13","size_leaf_vector":"0"}},{"base_weights":[9.436435E-2,4.803985E-1,7.037811E-2,3.9650723E-1,2.2245214E0,3.8576383E-2,3.627294E-1,1.7319061E-1,8.270438E-1,1.2637539E-1,3.1429892E0,8.100216E-2,-1.7458472E-1,3.3142176E0,3.2920352E-1],"categories":[],"categories_nodes":[],"categories_segments":[],"categories_sizes":[],"default_left":[1,1,1,1,1,1,1,0,0,0,0,0,0,0,0],"id":37,"left_children":[1,3,5,7,9,11,13,-1,-1,-1,-1,-1,-1,-1,-1],"loss_changes":[4.5578533E1,4.1257187E1,4.3116062E1,2.6393047E1,2.4654839E1,3.786129E1,4.3931755E1,0E0,0E0,0E0,0E0,0E0,0E0,0E0,0E0],"parents":[2147483647,0,0,1,1,2,2,3,3,4,4,5,5,6,6],"right_children":[2,4,6,8,10,12,14,-1,-1,-1,-1,-1,-1,-1,-1],"split_conditions":[2.45E1,1.3537827E1,8.600977E0,3.5398865E0,8.169415E1,4.4411545E0,8.616381E0,1.731906E-2,8.270438E-2,1.263754E-2,3.1429893E-1,8.100216E-3,-1.7458472E-2,3.3142176E-1,3.2920353E-2],"split_indices":[15,2,4,13,8,13,4,0,0,0,0,0,0,0,0],"split_type":[0,0,0,0,0,0,0,0,0,0,0,0,0,0,0],"sum_hessian":[4.925E3,2.87E2,4.638E3,2.75E2,1.2E1,4.184E3,4.54E2,1.82E2,9.3E1,4E0,8E0,3.49E3,6.94E2,4E0,4.5E2],"tree_param":{"num_deleted":"0","num_feature":"17","num_nodes":"15","size_leaf_vector":"0"}},{"base_weights":[8.508672E-2,-2.4360768E-2,1.6615608E-1,-2.997307E-2,2.32982E0,2.0544142E-1,-1.4703625E-1,-2.2064107E-2,-1.3996803E0,-3.1598735E-1,3.0702686E0,1.5654737E-1,5.5144125E-1,-2.468934E-1,1.8732235E0],"categories":[],"categories_nodes":[],"categories_segments":[],"categories_sizes":[],"default_left":[1,1,1,1,1,1,1,0,0,0,0,0,0,0,0],"id":38,"left_children":[1,3,5,7,9,11,13,-1,-1,-1,-1,-1,-1,-1,-1],"loss_changes":[4.3711655E1,2.7776165E1,3.4850143E1,2.2642506E1,1.0765587E1,4.2460762E1,6.42115E1,0E0,0E0,0E0,0E0,0E0,0E0,0E0,0E0],"parents":[2147483647,0,0,1,1,2,2,3,3,4,4,5,5,6,6],"right_children":[2,4,6,8,10,12,14,-1,-1,-1,-1,-1,-1,-1,-1],"split_conditions":[4.023362E0,8.295589E0,5.939722E0,7.546773E0,2.9930663E0,1.0469652E1,1.966181E2,-2.2064107E-3,-1.3996802E-1,-3.1598736E-2,3.0702686E-1,1.5654737E-2,5.5144127E-2,-2.4689341E-2,1.8732236E-1],"split_indices":[2,12,12,14,2,0,11,0,0,0,0,0,0,0,0],"split_type":[0,0,0,0,0,0,0,0,0,0,0,0,0,0,0],"sum_hessian":[4.925E3,2.096E3,2.829E3,2.092E3,4E0,2.514E3,3.15E2,2.081E3,1.1E1,1E0,3E0,2.204E3,3.1E2,3.01E2,1.4E1],"tree_param":{"num_deleted":"0","num_feature":"17","num_nodes":"15","size_leaf_vector":"0"}},{"base_weights":[7.6652534E-2,1.6668078E-1,-1.1848713E-2,1.2758674E-1,6.2414956E-1,-2.2815995E-2,1.3410096E0,1.4903343E-1,-4.7180656E-1,4.6162823E-1,1.6913266E0,3.1906493E-2,-2.9334065E-1,-5.281271E-1,2.388093E0],"categories":[],"categories_nodes":[],"categories_segments":[],"categories_sizes":[],"default_left":[1,1,1,1,1,1,1,0,0,0,0,0,0,0,0],"id":39,"left_children":[1,3,5,7,9,11,13,-1,-1,-1,-1,-1,-1,-1,-1],"loss_changes":[3.925043E1,4.3593834E1,3.690099E1,2.9006912E1,3.2519524E1,3.6515488E1,4.0404057E1,0E0,0E0,0E0,0E0,0E0,0E0,0E0,0E0],"parents":[2147483647,0,0,1,1,2,2,3,3,4,4,5,5,6,6],"right_children":[2,4,6,8,10,12,14,-1,-1,-1,-1,-1,-1,-1,-1],"split_conditions":[2.95E1,9.219362E0,8.05386E0,1.5349744E2,1.08898735E1,4.4435854E0,1.1009534E2,1.4903343E-2,-4.7180656E-2,4.6162825E-2,1.6913266E-1,3.1906494E-3,-2.9334066E-2,-5.2812707E-2,2.388093E-1],"split_indices":[15,5,13,10,3,13,11,0,0,0,0,0,0,0,0],"split_type":[0,0,0,0,0,0,0,0,0,0,0,0,0,0,0],"sum_hessian":[4.925E3,2.441E3,2.484E3,2.25E3,1.91E2,2.465E3,1.9E1,2.173E3,7.7E1,1.67E2,2.4E1,2.051E3,4.14E2,7E0,1.2E1],"tree_param":{"num_deleted":"0","num_feature":"17","num_nodes":"15","size_leaf_vector":"0"}},{"base_weights":[6.905688E-2,-5.849156E-2,1.2670211E-1,-2.3460334E-2,-4.1841948E-1,1.2373109E-1,3.4427168E0,-2.9856065E-2,2.2145147E0,-6.014597E-1,5.574006E-1,-2.365106E-1,1.481922E-1],"categories":[],"categories_nodes":[],"categories_segments":[],"categories_sizes":[],"default_left":[1,1,1,1,1,1,0,0,0,0,0,0,0],"id":40,"left_children":[1,3,5,7,9,11,-1,-1,-1,-1,-1,-1,-1],"loss_changes":[3.622612E1,1.9331955E1,3.300174E1,2.0090683E1,2.46268E1,2.9916237E1,0E0,0E0,0E0,0E0,0E0,0E0,0E0],"parents":[2147483647,0,0,1,1,2,2,3,3,4,4,5,5],"right_children":[2,4,6,8,10,12,-1,-1,-1,-1,-1,-1,-1],"split_conditions":[8.153203E1,5.782522E0,1.7619541E1,5.729801E0,6.267662E1,1.594466E0,3.442717E-1,-2.9856067E-3,2.2145148E-1,-6.014597E-2,5.574006E-2,-2.3651062E-2,1.481922E-2],"split_indices":[9,5,0,5,8,2,0,0,0,0,0,0,0],"split_type":[0,0,0,0,0,0,0,0,0,0,0,0,0],"sum_hessian":[4.925E3,1.533E3,3.392E3,1.398E3,1.35E2,3.39E3,2E0,1.395E3,3E0,1.14E2,2.1E1,2.15E2,3.175E3],"tree_param":{"num_deleted":"0","num_feature":"17","num_nodes":"13","size_leaf_vector":"0"}},{"base_weights":[6.226279E-2,2.962079E-1,3.176426E-2,3.1716338E-1,-3.7561266E0,2.95664E-2,3.2132025E0,2.3768549E-1,1.3290708E0,2.5006441E-2,1.4423441E0],"categories":[],"categories_nodes":[],"categories_segments":[],"categories_sizes":[],"default_left":[1,1,1,1,0,1,0,0,0,0,0],"id":41,"left_children":[1,3,5,7,-1,9,-1,-1,-1,-1,-1],"loss_changes":[3.513751E1,4.9425053E1,3.0384684E1,4.5204235E1,0E0,2.8032623E1,0E0,0E0,0E0,0E0,0E0],"parents":[2147483647,0,0,1,1,2,2,3,3,5,5],"right_children":[2,4,6,8,-1,10,-1,-1,-1,-1,-1],"split_conditions":[2.55E1,9.210452E0,1.7619541E1,1.1788916E1,-3.7561268E-1,2.058537E2,3.2132027E-1,2.376855E-2,1.3290708E-1,2.5006442E-3,1.442344E-1],"split_indices":[15,14,0,2,0,10,0,0,0,0,0],"split_type":[0,0,0,0,0,0,0,0,0,0,0],"sum_hessian":[4.925E3,5.67E2,4.358E3,5.65E2,2E0,4.356E3,2E0,5.25E2,4E1,4.343E3,1.3E1],"tree_param":{"num_deleted":"0","num_feature":"17","num_nodes":"11","size_leaf_vector":"0"}},{"base_weights":[5.6087162E-2,1.1223905E-1,-5.8890477E-2,6.8313055E-2,3.7298128E-1,-1.5167847E-1,1.10432975E-1,8.5173115E-2,-5.705335E-1,1.7040178E0,2.8301683E-1,-5.59733E-2,-4.0546957E-1,8.2069896E-2,1.8787338E0],"categories":[],"categories_nodes":[],"categories_segments":[],"categories_sizes":[],"default_left":[1,1,1,1,1,1,1,0,0,0,0,0,0,0,0],"id":42,"left_children":[1,3,5,7,9,11,13,-1,-1,-1,-1,-1,-1,-1,-1],"loss_changes":[3.180991E1,3.788515E1,2.5421734E1,3.0573587E1,5.663656E1,2.5359434E1,2.8584316E1,0E0,0E0,0E0,0E0,0E0,0E0,0E0,0E0],"parents":[2147483647,0,0,1,1,2,2,3,3,4,4,5,5,6,6],"right_children":[2,4,6,8,10,12,14,-1,-1,-1,-1,-1,-1,-1,-1],"split_conditions":[3.15E1,9.186763E0,1.0160077E2,1.1328566E1,1.7949862E0,2.7765248E0,8.057137E0,8.517312E-3,-5.7053354E-2,1.7040178E-1,2.8301684E-2,-5.59733E-3,-4.0546957E-2,8.20699E-3,1.8787338E-1],"split_indices":[15,0,11,1,14,13,13,0,0,0,0,0,0,0,0],"split_type":[0,0,0,0,0,0,0,0,0,0,0,0,0,0,0],"sum_hessian":[4.925E3,3.309E3,1.616E3,2.833E3,4.76E2,1.044E3,5.72E2,2.761E3,7.2E1,2.9E1,4.47E2,7.59E2,2.85E2,5.64E2,8E0],"tree_param":{"num_deleted":"0","num_feature":"17","num_nodes":"15","size_leaf_vector":"0"}},{"base_weights":[5.0539415E-2,4.5823548E-2,1.3338536E0,3.5258162E-1,2.6840279E-2,-5.1892155E-1,2.0863764E0,2.4247494E-2,6.7618716E-1,-7.3975764E-2,7.570236E-2,-8.7998533E-1,1.354707E-1,3.063169E0,4.362569E-1],"categories":[],"categories_nodes":[],"categories_segments":[],"categories_sizes":[],"default_left":[1,1,1,1,1,1,1,0,0,0,0,0,0,0,0],"id":43,"left_children":[1,3,5,7,9,11,13,-1,-1,-1,-1,-1,-1,-1,-1],"loss_changes":[2.9750736E1,2.8576973E1,2.6179264E1,3.0371315E1,2.27838E1,1.5368764E0,1.961739E1,0E0,0E0,0E0,0E0,0E0,0E0,0E0,0E0],"parents":[2147483647,0,0,1,1,2,2,3,3,4,4,5,5,6,6],"right_children":[2,4,6,8,10,12,14,-1,-1,-1,-1,-1,-1,-1,-1],"split_conditions":[1.5827168E1,2.45E1,1.4375128E2,2.751649E0,8.24346E1,8.986458E0,1.0912166E2,2.4247493E-3,6.761872E-2,-7.3975767E-3,7.5702365E-3,-8.799853E-2,1.354707E-2,3.063169E-1,4.362569E-2],"split_indices":[1,15,9,12,9,3,8,0,0,0,0,0,0,0,0],"split_type":[0,0,0,0,0,0,0,0,0,0,0,0,0,0,0],"sum_hessian":[4.925E3,4.908E3,1.7E1,2.85E2,4.623E3,5E0,1.2E1,1.42E2,1.43E2,1.509E3,3.114E3,3E0,2E0,7E0,5E0],"tree_param":{"num_deleted":"0","num_feature":"17","num_nodes":"15","size_leaf_vector":"0"}},{"base_weights":[4.555564E-2,-7.074739E-2,9.115695E-2,-3.9238706E-2,-4.7186056E-1,9.511871E-2,-1.921419E0,-3.9449888E-1,-1.2539246E-2,-6.39467E-1,6.1537004E-1,8.961656E-2,1.5780385E0,-2.3559232E0,3.42803E-1],"categories":[],"categories_nodes":[],"categories_segments":[],"categories_sizes":[],"default_left":[1,1,1,1,1,1,1,0,0,0,0,0,0,0,0],"id":44,"left_children":[1,3,5,7,9,11,13,-1,-1,-1,-1,-1,-1,-1,-1],"loss_changes":[2.6131838E1,1.7523787E1,2.8400377E1,1.2212063E1,1.8798424E1,2.868521E1,7.694315E0,0E0,0E0,0E0,0E0,0E0,0E0,0E0,0E0],"parents":[2147483647,0,0,1,1,2,2,3,3,4,4,5,5,6,6],"right_children":[2,4,6,8,10,12,14,-1,-1,-1,-1,-1,-1,-1,-1],"split_conditions":[2.528922E0,3.1632123E0,1.0116322E1,7.309216E-1,4.7724786E0,2.058537E2,1.2160986E1,-3.944989E-2,-1.2539247E-3,-6.39467E-2,6.1537005E-2,8.961656E-3,1.5780385E-1,-2.3559232E-1,3.42803E-2],"split_indices":[1,12,13,4,14,10,5,0,0,0,0,0,0,0,0],"split_type":[0,0,0,0,0,0,0,0,0,0,0,0,0,0,0],"sum_hessian":[4.925E3,1.387E3,3.538E3,1.287E3,1E2,3.532E3,6E0,8.9E1,1.198E3,8.7E1,1.3E1,3.52E3,1.2E1,5E0,1E0],"tree_param":{"num_deleted":"0","num_feature":"17","num_nodes":"15","size_leaf_vector":"0"}},{"base_weights":[4.09843E-2,8.9837186E-2,-5.9042927E-2,8.4448665E-2,1.6982259E0,-7.0896104E-2,8.909782E-1,8.912823E-2,-1.6366163E0,-8.207078E-1,2.7454145E0,-5.5007562E-2,-8.227314E-1,9.3156986E-2,2.0760653E0],"categories":[],"categories_nodes":[],"categories_segments":[],"categories_sizes":[],"default_left":[1,1,1,1,1,1,1,0,0,0,0,0,0,0,0],"id":45,"left_children":[1,3,5,7,9,11,13,-1,-1,-1,-1,-1,-1,-1,-1],"loss_changes":[2.4076786E1,2.8543808E1,1.8271833E1,2.672354E1,3.1268967E1,1.9043762E1,1.871635E1,0E0,0E0,0E0,0E0,0E0,0E0,0E0,0E0],"parents":[2147483647,0,0,1,1,2,2,3,3,4,4,5,5,6,6],"right_children":[2,4,6,8,10,12,14,-1,-1,-1,-1,-1,-1,-1,-1],"split_conditions":[3.15E1,1.59459305E1,7.500127E0,9.798807E0,8.008201E1,1.0346342E1,1.3734631E2,8.912823E-3,-1.6366164E-1,-8.207078E-2,2.7454147E-1,-5.500756E-3,-8.227314E-2,9.315698E-3,2.0760654E-1],"split_indices":[15,1,13,13,6,3,10,0,0,0,0,0,0,0,0],"split_type":[0,0,0,0,0,0,0,0,0,0,0,0,0,0,0],"sum_hessian":[4.925E3,3.309E3,1.616E3,3.299E3,1E1,1.597E3,1.9E1,3.291E3,8E0,3E0,7E0,1.565E3,3.2E1,1.2E1,7E0],"tree_param":{"num_deleted":"0","num_feature":"17","num_nodes":"15","size_leaf_vector":"0"}},{"base_weights":[3.691967E-2,3.5243947E-2,2.7750332E0,3.058468E-1,1.842944E-2,2.549528E-1,2.3124566E0,-3.3797272E-3,2.1937905E-1],"categories":[],"categories_nodes":[],"categories_segments":[],"categories_sizes":[],"default_left":[1,1,0,1,1,0,0,0,0],"id":46,"left_children":[1,3,-1,5,7,-1,-1,-1,-1],"loss_changes":[2.2504263E1,2.239883E1,0E0,2.8822275E1,2.0322596E1,0E0,0E0,0E0,0E0],"parents":[2147483647,0,0,1,1,3,3,4,4],"right_children":[2,4,-1,6,8,-1,-1,-1,-1],"split_conditions":[1.7619541E1,2.45E1,2.7750334E-1,1.4189474E1,8.600977E0,2.549528E-2,2.3124567E-1,-3.3797274E-4,2.1937905E-2],"split_indices":[0,15,0,2,4,0,0,0,0],"split_type":[0,0,0,0,0,0,0,0,0],"sum_hessian":[4.925E3,4.923E3,2E0,2.87E2,4.636E3,2.81E2,6E0,4.183E3,4.53E2],"tree_param":{"num_deleted":"0","num_feature":"17","num_nodes":"9","size_leaf_vector":"0"}},{"base_weights":[3.334054E-2,-4.3193903E-2,8.781786E-2,-1.8747548E-2,-4.3951926E-1,1.243665E-1,-1.7738523E-1,-2.3861235E-2,1.3901951E0,-2.1877135E-1,-1.1835947E0,1.622442E-1,-1.6426198E-1,7.831255E-2,-4.979251E-1],"categories":[],"categories_nodes":[],"categories_segments":[],"categories_sizes":[],"default_left":[1,1,1,1,1,1,1,0,0,0,0,0,0,0,0],"id":47,"left_children":[1,3,5,7,9,11,13,-1,-1,-1,-1,-1,-1,-1,-1],"loss_changes":[2.0542217E1,1.984393E1,2.791797E1,1.3945822E1,1.9287182E1,2.768608E1,2.8643501E1,0E0,0E0,0E0,0E0,0E0,0E0,0E0,0E0],"parents":[2147483647,0,0,1,1,2,2,3,3,4,4,5,5,6,6],"right_children":[2,4,6,8,10,12,14,-1,-1,-1,-1,-1,-1,-1,-1],"split_conditions":[3.8872972E0,4.3113537E0,3.45E1,4.2441506E0,3.4340224E0,5.939722E0,7.295282E0,-2.3861236E-3,1.3901952E-1,-2.1877136E-2,-1.1835947E-1,1.622442E-2,-1.6426198E-2,7.831256E-3,-4.979251E-2],"split_indices":[2,14,15,14,2,12,0,0,0,0,0,0,0,0,0],"split_type":[0,0,0,0,0,0,0,0,0,0,0,0,0,0,0],"sum_hessian":[4.925E3,2.048E3,2.877E3,1.93E3,1.18E2,2.529E3,3.48E2,1.924E3,6E0,9.2E1,2.6E1,2.236E3,2.93E2,1.94E2,1.54E2],"tree_param":{"num_deleted":"0","num_feature":"17","num_nodes":"15","size_leaf_vector":"0"}},{"base_weights":[2.9997133E-2,2.8437903E-2,2.5792148E0,2.6891883E-2,2.5554612E0,3.2405056E-2,-8.4398997E-1],"categories":[],"categories_nodes":[],"categories_segments":[],"categories_sizes":[],"default_left":[1,1,0,1,0,0,0],"id":48,"left_children":[1,3,-1,5,-1,-1,-1],"loss_changes":[1.9506603E1,1.9168497E1,0E0,2.3659462E1,0E0,0E0,0E0],"parents":[2147483647,0,0,1,1,3,3],"right_children":[2,4,-1,6,-1,-1,-1],"split_conditions":[1.7619541E1,1.190349E1,2.579215E-1,8.670695E0,2.5554612E-1,3.2405057E-3,-8.4399E-2],"split_indices":[0,12,0,14,0,0,0],"split_type":[0,0,0,0,0,0,0],"sum_hessian":[4.925E3,4.923E3,2E0,4.921E3,2E0,4.891E3,3E1],"tree_param":{"num_deleted":"0","num_feature":"17","num_nodes":"7","size_leaf_vector":"0"}},{"base_weights":[2.7085127E-2,-5.2048583E-2,7.3269546E-2,-5.6197118E-2,1.8412868E0,1.0000881E-1,-1.5625532E-1,-2.4594143E-2,-3.4276968E-1,2.1793628E0,4.135294E-1,8.445567E-2,6.690791E-1,-2.3022519E-1,1.3878037E0],"categories":[],"categories_nodes":[],"categories_segments":[],"categories_sizes":[],"default_left":[1,1,1,1,1,1,1,0,0,0,0,0,0,0,0],"id":49,"left_children":[1,3,5,7,9,11,13,-1,-1,-1,-1,-1,-1,-1,-1],"loss_changes":[1.8007086E1,1.4367369E1,1.9108845E1,1.6411087E1,1.0295315E0,2.4610748E1,3.7439007E1,0E0,0E0,0E0,0E0,0E0,0E0,0E0,0E0],"parents":[2147483647,0,0,1,1,2,2,3,3,4,4,5,5,6,6],"right_children":[2,4,6,8,10,12,14,-1,-1,-1,-1,-1,-1,-1,-1],"split_conditions":[3.4594958E0,9.42576E0,5.939722E0,4.7534676E0,1.1856892E1,1.0731741E1,1.966181E2,-2.4594143E-3,-3.427697E-2,2.1793628E-1,4.135294E-2,8.445567E-3,6.690791E-2,-2.302252E-2,1.3878037E-1],"split_indices":[0,4,12,5,1,5,11,0,0,0,0,0,0,0,0],"split_type":[0,0,0,0,0,0,0,0,0,0,0,0,0,0,0],"sum_hessian":[4.925E3,1.815E3,3.11E3,1.812E3,3E0,2.786E3,3.24E2,1.633E3,1.79E2,2E0,1E0,2.713E3,7.3E1,3.1E2,1.4E1],"tree_param":{"num_deleted":"0","num_feature":"17","num_nodes":"15","size_leaf_vector":"0"}}]},"name":"gbtree"},"learner_model_param":{"base_score":"5E-1","boost_from_average":"1","num_class":"0","num_feature":"17","num_target":"1"},"objective":{"name":"reg:squarederror","reg_loss_param":{"scale_pos_weight":"1"}}},"version":[1,7,6]}